digraph Tree {
0 [label="WaterQuantity_dry <= 0.5000\ngini = 0.495108746132\nsamples = 36216", shape="box"] ;
1 [label="WaterPoint_other <= 0.5000\ngini = 0.476009583953\nsamples = 32491", shape="box"] ;
0 -> 1 ;
2 [label="WaterPoint_communal standpipe multiple <= 0.5000\ngini = 0.454352526304\nsamples = 29760", shape="box"] ;
1 -> 2 ;
3 [label="gini = 0.4329\nsamples = 26155\nvalue = [ 17870.   8285.]", shape="box"] ;
2 -> 3 ;
4 [label="gini = 0.4865\nsamples = 3605\nvalue = [ 1506.  2099.]", shape="box"] ;
2 -> 4 ;
5 [label="ExtractionType_other <= 0.5000\ngini = 0.264316516725\nsamples = 2731", shape="box"] ;
1 -> 5 ;
6 [label="gini = 0.4115\nsamples = 915\nvalue = [ 265.  650.]", shape="box"] ;
5 -> 6 ;
7 [label="gini = 0.1634\nsamples = 1816\nvalue = [  163.  1653.]", shape="box"] ;
5 -> 7 ;
8 [label="WaterInstaller_DWSP <= 0.5000\ngini = 0.049705869105\nsamples = 3725", shape="box"] ;
0 -> 8 ;
9 [label="WaterInstaller_Villagers <= 0.5000\ngini = 0.0442228116772\nsamples = 3713", shape="box"] ;
8 -> 9 ;
10 [label="gini = 0.0402\nsamples = 3702\nvalue = [   76.  3626.]", shape="box"] ;
9 -> 10 ;
11 [label="gini = 0.3967\nsamples = 11\nvalue = [ 8.  3.]", shape="box"] ;
9 -> 11 ;
12 [label="ExtractionType_swn 80 <= 0.5000\ngini = 0.152777777778\nsamples = 12", shape="box"] ;
8 -> 12 ;
13 [label="gini = 0.0000\nsamples = 5\nvalue = [ 5.  0.]", shape="box"] ;
12 -> 13 ;
14 [label="gini = 0.2449\nsamples = 7\nvalue = [ 6.  1.]", shape="box"] ;
12 -> 14 ;
}